variant,dim_0,dim_1,dim_2,dim_3,dim_4,dim_5,dim_6,dim_7,dim_8,dim_9,dim_10,dim_11,dim_12,dim_13,dim_14,dim_15,dim_16,dim_17,dim_18,dim_19,dim_20,dim_21,dim_22,dim_23,dim_24,dim_25,dim_26,dim_27,dim_28,dim_29,dim_30,dim_31,dim_32,dim_33,dim_34,dim_35,dim_36,dim_37,dim_38,dim_39,dim_40,dim_41,dim_42,dim_43,dim_44,dim_45,dim_46,dim_47,dim_48,dim_49,dim_50,dim_51,dim_52,dim_53,dim_54,dim_55,dim_56,dim_57,dim_58,dim_59,dim_60,dim_61,dim_62,dim_63,dim_64,dim_65,dim_66,dim_67,dim_68,dim_69,dim_70,dim_71,dim_72,dim_73,dim_74,dim_75,dim_76,dim_77,dim_78,dim_79,dim_80,dim_81,dim_82,dim_83,dim_84,dim_85,dim_86,dim_87,dim_88,dim_89,dim_90,dim_91,dim_92,dim_93,dim_94,dim_95,dim_96,dim_97,dim_98,dim_99,dim_100,dim_101,dim_102,dim_103,dim_104,dim_105,dim_106,dim_107,dim_108,dim_109,dim_110,dim_111,dim_112,dim_113,dim_114,dim_115,dim_116,dim_117,dim_118,dim_119,dim_120,dim_121,dim_122,dim_123,dim_124,dim_125,dim_126,dim_127,dim_128,dim_129,dim_130,dim_131,dim_132,dim_133,dim_134,dim_135,dim_136,dim_137,dim_138,dim_139,dim_140,dim_141,dim_142,dim_143,dim_144,dim_145,dim_146,dim_147,dim_148,dim_149,dim_150,dim_151,dim_152,dim_153,dim_154,dim_155,dim_156,dim_157,dim_158,dim_159,dim_160,dim_161,dim_162,dim_163,dim_164,dim_165,dim_166,dim_167,dim_168,dim_169,dim_170,dim_171,dim_172,dim_173,dim_174,dim_175,dim_176,dim_177,dim_178,dim_179,dim_180,dim_181,dim_182,dim_183,dim_184,dim_185,dim_186,dim_187,dim_188,dim_189,dim_190,dim_191,dim_192,dim_193,dim_194,dim_195,dim_196,dim_197,dim_198,dim_199,dim_200,dim_201,dim_202,dim_203,dim_204,dim_205,dim_206,dim_207,dim_208,dim_209,dim_210,dim_211,dim_212,dim_213,dim_214,dim_215,dim_216,dim_217,dim_218,dim_219,dim_220,dim_221,dim_222,dim_223,dim_224,dim_225,dim_226,dim_227,dim_228,dim_229,dim_230,dim_231,dim_232,dim_233,dim_234,dim_235,dim_236,dim_237,dim_238,dim_239,dim_240,dim_241,dim_242,dim_243,dim_244,dim_245,dim_246,dim_247,dim_248,dim_249,dim_250,dim_251,dim_252,dim_253,dim_254,dim_255,dim_256,dim_257,dim_258,dim_259,dim_260,dim_261,dim_262,dim_263,dim_264,dim_265,dim_266,dim_267,dim_268,dim_269,dim_270,dim_271,dim_272,dim_273,dim_274,dim_275,dim_276,dim_277,dim_278,dim_279,dim_280,dim_281,dim_282,dim_283,dim_284,dim_285,dim_286,dim_287,dim_288,dim_289,dim_290,dim_291,dim_292,dim_293,dim_294,dim_295,dim_296,dim_297,dim_298,dim_299,dim_300,dim_301,dim_302,dim_303,dim_304,dim_305,dim_306,dim_307,dim_308,dim_309,dim_310,dim_311,dim_312,dim_313,dim_314,dim_315,dim_316,dim_317,dim_318,dim_319,dim_320,dim_321,dim_322,dim_323,dim_324,dim_325,dim_326,dim_327,dim_328,dim_329,dim_330,dim_331,dim_332,dim_333,dim_334,dim_335,dim_336,dim_337,dim_338,dim_339,dim_340,dim_341,dim_342,dim_343,dim_344,dim_345,dim_346,dim_347,dim_348,dim_349,dim_350,dim_351,dim_352,dim_353,dim_354,dim_355,dim_356,dim_357,dim_358,dim_359,dim_360,dim_361,dim_362,dim_363,dim_364,dim_365,dim_366,dim_367,dim_368,dim_369,dim_370,dim_371,dim_372,dim_373,dim_374,dim_375,dim_376,dim_377,dim_378,dim_379,dim_380,dim_381,dim_382,dim_383,dim_384,dim_385,dim_386,dim_387,dim_388,dim_389,dim_390,dim_391,dim_392,dim_393,dim_394,dim_395,dim_396,dim_397,dim_398,dim_399,dim_400,dim_401,dim_402,dim_403,dim_404,dim_405,dim_406,dim_407,dim_408,dim_409,dim_410,dim_411,dim_412,dim_413,dim_414,dim_415,dim_416,dim_417,dim_418,dim_419,dim_420,dim_421,dim_422,dim_423,dim_424,dim_425,dim_426,dim_427,dim_428,dim_429,dim_430,dim_431,dim_432,dim_433,dim_434,dim_435,dim_436,dim_437,dim_438,dim_439,dim_440,dim_441,dim_442,dim_443,dim_444,dim_445,dim_446,dim_447,dim_448,dim_449,dim_450,dim_451,dim_452,dim_453,dim_454,dim_455,dim_456,dim_457,dim_458,dim_459,dim_460,dim_461,dim_462,dim_463,dim_464,dim_465,dim_466,dim_467,dim_468,dim_469,dim_470,dim_471,dim_472,dim_473,dim_474,dim_475,dim_476,dim_477,dim_478,dim_479,dim_480,dim_481,dim_482,dim_483,dim_484,dim_485,dim_486,dim_487,dim_488,dim_489,dim_490,dim_491,dim_492,dim_493,dim_494,dim_495,dim_496,dim_497,dim_498,dim_499,dim_500,dim_501,dim_502,dim_503,dim_504,dim_505,dim_506,dim_507,dim_508,dim_509,dim_510,dim_511,dim_512,dim_513,dim_514,dim_515,dim_516,dim_517,dim_518,dim_519,dim_520,dim_521,dim_522,dim_523,dim_524,dim_525,dim_526,dim_527,dim_528,dim_529,dim_530,dim_531,dim_532,dim_533,dim_534,dim_535,dim_536,dim_537,dim_538,dim_539,dim_540,dim_541,dim_542,dim_543,dim_544,dim_545,dim_546,dim_547,dim_548,dim_549,dim_550,dim_551,dim_552,dim_553,dim_554,dim_555,dim_556,dim_557,dim_558,dim_559,dim_560,dim_561,dim_562,dim_563,dim_564,dim_565,dim_566,dim_567,dim_568,dim_569,dim_570,dim_571,dim_572,dim_573,dim_574,dim_575,dim_576,dim_577,dim_578,dim_579,dim_580,dim_581,dim_582,dim_583,dim_584,dim_585,dim_586,dim_587,dim_588,dim_589,dim_590,dim_591,dim_592,dim_593,dim_594,dim_595,dim_596,dim_597,dim_598,dim_599,dim_600,dim_601,dim_602,dim_603,dim_604,dim_605,dim_606,dim_607,dim_608,dim_609,dim_610,dim_611,dim_612,dim_613,dim_614,dim_615,dim_616,dim_617,dim_618,dim_619,dim_620,dim_621,dim_622,dim_623,dim_624,dim_625,dim_626,dim_627,dim_628,dim_629,dim_630,dim_631,dim_632,dim_633,dim_634,dim_635,dim_636,dim_637,dim_638,dim_639,dim_640,dim_641,dim_642,dim_643,dim_644,dim_645,dim_646,dim_647,dim_648,dim_649,dim_650,dim_651,dim_652,dim_653,dim_654,dim_655,dim_656,dim_657,dim_658,dim_659,dim_660,dim_661,dim_662,dim_663,dim_664,dim_665,dim_666,dim_667,dim_668,dim_669,dim_670,dim_671,dim_672,dim_673,dim_674,dim_675,dim_676,dim_677,dim_678,dim_679,dim_680,dim_681,dim_682,dim_683,dim_684,dim_685,dim_686,dim_687,dim_688,dim_689,dim_690,dim_691,dim_692,dim_693,dim_694,dim_695,dim_696,dim_697,dim_698,dim_699,dim_700,dim_701,dim_702,dim_703,dim_704,dim_705,dim_706,dim_707,dim_708,dim_709,dim_710,dim_711,dim_712,dim_713,dim_714,dim_715,dim_716,dim_717,dim_718,dim_719,dim_720,dim_721,dim_722,dim_723,dim_724,dim_725,dim_726,dim_727,dim_728,dim_729,dim_730,dim_731,dim_732,dim_733,dim_734,dim_735,dim_736,dim_737,dim_738,dim_739,dim_740,dim_741,dim_742,dim_743,dim_744,dim_745,dim_746,dim_747,dim_748,dim_749,dim_750,dim_751,dim_752,dim_753,dim_754,dim_755,dim_756,dim_757,dim_758,dim_759,dim_760,dim_761,dim_762,dim_763,dim_764,dim_765,dim_766,dim_767,dim_768,dim_769,dim_770,dim_771,dim_772,dim_773,dim_774,dim_775,dim_776,dim_777,dim_778,dim_779,dim_780,dim_781,dim_782,dim_783,dim_784,dim_785,dim_786,dim_787,dim_788,dim_789,dim_790,dim_791,dim_792,dim_793,dim_794,dim_795,dim_796,dim_797,dim_798,dim_799,dim_800,dim_801,dim_802,dim_803,dim_804,dim_805,dim_806,dim_807,dim_808,dim_809,dim_810,dim_811,dim_812,dim_813,dim_814,dim_815,dim_816,dim_817,dim_818,dim_819,dim_820,dim_821,dim_822,dim_823,dim_824,dim_825,dim_826,dim_827,dim_828,dim_829,dim_830,dim_831,dim_832,dim_833,dim_834,dim_835,dim_836,dim_837,dim_838,dim_839,dim_840,dim_841,dim_842,dim_843,dim_844,dim_845,dim_846,dim_847,dim_848,dim_849,dim_850,dim_851,dim_852,dim_853,dim_854,dim_855,dim_856,dim_857,dim_858,dim_859,dim_860,dim_861,dim_862,dim_863,dim_864,dim_865,dim_866,dim_867,dim_868,dim_869,dim_870,dim_871,dim_872,dim_873,dim_874,dim_875,dim_876,dim_877,dim_878,dim_879,dim_880,dim_881,dim_882,dim_883,dim_884,dim_885,dim_886,dim_887,dim_888,dim_889,dim_890,dim_891,dim_892,dim_893,dim_894,dim_895,dim_896,dim_897,dim_898,dim_899,dim_900,dim_901,dim_902,dim_903,dim_904,dim_905,dim_906,dim_907,dim_908,dim_909,dim_910,dim_911,dim_912,dim_913,dim_914,dim_915,dim_916,dim_917,dim_918,dim_919,dim_920,dim_921,dim_922,dim_923,dim_924,dim_925,dim_926,dim_927,dim_928,dim_929,dim_930,dim_931,dim_932,dim_933,dim_934,dim_935,dim_936,dim_937,dim_938,dim_939,dim_940,dim_941,dim_942,dim_943,dim_944,dim_945,dim_946,dim_947,dim_948,dim_949,dim_950,dim_951,dim_952,dim_953,dim_954,dim_955,dim_956,dim_957,dim_958,dim_959
WT,-0.02043921686708927,-0.02623532898724079,0.005824211053550243,0.024093730375170708,0.021046338602900505,0.04210507124662399,0.007737097796052694,-0.021232036873698235,-0.002234635641798377,0.005705723538994789,0.008681461215019226,0.00013373274123296142,-0.011484596878290176,0.005527016241103411,-0.018752306699752808,-0.008757811971008778,0.00887632742524147,-0.008820859715342522,0.012308734469115734,-0.007648500148206949,0.05633404478430748,0.018718264997005463,-0.015005376189947128,0.29264476895332336,-0.022222571074962616,-0.006699566263705492,0.0014612778322771192,-0.012051706202328205,-0.005843015853315592,0.010328461416065693,-0.010371058247983456,0.014874200336635113,-0.03627041354775429,0.006928850896656513,0.017634600400924683,-0.0065194847993552685,-0.001967028947547078,0.005899067968130112,-0.03883858025074005,-0.005120685324072838,-0.028908351436257362,-0.009258345700800419,-0.018715612590312958,0.002690285211429,0.009039638563990593,-0.009527127258479595,-0.018711958080530167,-0.009241481311619282,0.01675339601933956,-0.006022261455655098,-0.014372410252690315,-0.015162845142185688,-0.03447520732879639,0.020440420135855675,-0.035553786903619766,0.009459642693400383,0.013411659747362137,-0.022796209901571274,0.022575287148356438,0.03328123316168785,-0.02847682125866413,0.0014593260129913688,0.0019864358473569155,-0.013709325343370438,-0.006095183547586203,-0.014781100675463676,-0.031518563628196716,0.005294010974466801,0.0033617885783314705,0.010495615191757679,0.015903739258646965,0.023967228829860687,-0.009086702018976212,-0.00019746573525480926,-0.0323949009180069,-0.02004363015294075,0.007270455360412598,-0.033448778092861176,-0.005983287468552589,-0.0018356014043092728,-0.013999243266880512,0.004282599315047264,-0.04981537163257599,0.010791657492518425,0.013565469533205032,0.00947966706007719,-0.04769233986735344,-0.0012185890227556229,-0.019138915464282036,0.020088225603103638,0.011105969548225403,0.02026071958243847,0.01765652745962143,-0.0019427601946517825,-0.0009544048807583749,-0.005091370083391666,0.013660767115652561,-0.012133870273828506,-0.0008404248510487378,-0.00689358077943325,-0.03480000048875809,-0.00951374415308237,0.004521616268903017,0.00661865621805191,0.010741613805294037,-0.006919195409864187,-0.014038879424333572,-0.013339005410671234,-0.003562713973224163,-0.009330091997981071,-0.00637086434289813,0.014860947616398335,-0.02064012549817562,-0.007401329930871725,-0.02182050235569477,0.011897075921297073,-0.010556436143815517,-0.0016225228318944573,-0.015011515468358994,0.009091613814234734,-0.002784288953989744,0.0003226356056984514,-0.005923658609390259,-0.017999179661273956,0.0013295776443555951,0.01031927764415741,0.014806270599365234,0.00595009233802557,-0.05316237732768059,0.0021308346185833216,0.013638685457408428,-0.005569147877395153,0.011342653073370457,0.01870890147984028,-0.005393794272094965,-0.008059369400143623,-0.021344009786844254,-0.02277437224984169,-0.02076595276594162,-0.000892805983312428,-0.025042330846190453,0.0022616758942604065,-0.0040364861488342285,0.012160778045654297,-0.003870943794026971,0.018253888934850693,0.013562452048063278,-0.0038412921130657196,-0.007048025727272034,-0.012796131893992424,0.0019910065457224846,-0.020931532606482506,-0.0059282854199409485,0.012472963891923428,0.015224686823785305,0.018663931638002396,-0.00292400736361742,-0.011331993155181408,0.021610207855701447,0.005199907347559929,0.0015189722180366516,-0.008022376336157322,-0.002967324573546648,-0.0025767844635993242,-0.017927806824445724,-0.009660125710070133,-0.026632586494088173,0.008493945002555847,0.0010333405807614326,0.015143745578825474,0.0144577007740736,-0.0020141126587986946,0.0039000478573143482,-0.029035039246082306,-0.009191672317683697,0.017153790220618248,-0.014398355036973953,-0.006238298490643501,-0.003062282921746373,-0.010139710269868374,0.02548273093998432,-0.01824454590678215,-0.007376343943178654,-0.010018128901720047,-0.013739794492721558,-0.008624316193163395,-0.04406576603651047,0.007423337083309889,-0.0160909965634346,-0.010952459648251534,0.0006825427408330142,0.0006434895913116634,-0.00249490630812943,0.006299475207924843,0.029599348083138466,-0.007097113411873579,0.00928330235183239,0.013538163155317307,-0.02441762201488018,0.010211732238531113,-0.009481951594352722,0.027103431522846222,0.011957261711359024,0.03681303560733795,0.003946899436414242,0.007793070748448372,-0.021851735189557076,0.015948854386806488,-0.000898357480764389,0.5879565477371216,-0.020690061151981354,-0.00118468445725739,0.4297480583190918,0.012709354050457478,-0.007296057417988777,-0.022136449813842773,-0.010541741736233234,-0.010749454610049725,-0.01074514351785183,-0.005897685419768095,-0.0023589038755744696,-0.006162779405713081,-0.0006357391830533743,0.011735020205378532,-0.016028139740228653,0.021447697654366493,0.011806728318333626,-0.0035453049931675196,0.01669129729270935,0.0013539900537580252,-0.009659250266849995,-0.011926497332751751,0.0033380642998963594,-0.032255273312330246,-0.024359334260225296,-0.014719481579959393,-0.012628412805497646,0.02761821635067463,-0.0021427865140140057,-0.01346187386661768,-0.011542264372110367,4.788472506334074e-05,-0.025048447772860527,0.02121717296540737,0.008649688214063644,-0.007681757211685181,-0.010615893639624119,0.006270832382142544,-0.03920534998178482,-0.012052785605192184,-0.009029343724250793,-0.028034677729010582,-0.010305657982826233,0.010799086652696133,0.010428701527416706,0.012831862084567547,-0.013419770635664463,0.09997859597206116,-0.00844601821154356,-0.004769952967762947,0.00042323829256929457,-0.01665348932147026,0.018194662407040596,-0.00026971433544531465,-0.04685321822762489,-0.019688503816723824,-0.008939485996961594,-0.00569809740409255,-0.0065875304862856865,-0.014337150380015373,0.0016275809612125158,0.005096497479826212,0.010369274765253067,-0.00695638544857502,-0.013411779887974262,0.008099595084786415,0.00972623098641634,-0.008398733101785183,-0.013437982648611069,-0.015514642000198364,-0.007036413531750441,0.004293820820748806,0.017101049423217773,-0.00016990945732686669,0.013662904500961304,-0.005991061218082905,0.0058147478848695755,-0.004465606063604355,-0.013440802693367004,0.00435887835919857,0.01647966355085373,-0.025267265737056732,0.008775289170444012,-0.018469272181391716,0.017354730516672134,0.017116665840148926,-0.012278983369469643,-0.002135236980393529,0.024822810664772987,-0.0028584871906787157,0.01876346580684185,-0.011035002768039703,-0.028394490480422974,-0.014791612513363361,0.031331442296504974,-0.005916633177548647,0.0034137731418013573,0.033058300614356995,0.021959245204925537,0.016168512403964996,-0.007865294814109802,0.028856907039880753,-0.02228865772485733,0.009519622661173344,-0.059394557029008865,-0.005971334408968687,-0.007158680818974972,-0.004212258383631706,-0.01259397342801094,-0.009505663067102432,-0.009194140322506428,0.013501669280230999,-0.006497321184724569,0.018836447969079018,-0.0461566299200058,-0.0025979955680668354,0.00020471421885304153,-0.01570066064596176,0.03014003485441208,0.0043608383275568485,-0.014010409824550152,0.0016937530599534512,-0.022197961807250977,0.002735645044595003,0.0016558966599404812,0.005948656238615513,-0.009614359587430954,0.003316821763291955,0.023023923859000206,0.012969177216291428,-0.011891593225300312,0.001593665569089353,0.014108197763562202,-0.006070731207728386,0.0047864895313978195,0.009921969845890999,-0.012769616208970547,-0.012669944204390049,0.004271309357136488,-0.014322800561785698,0.002504154574126005,0.007484122179448605,0.005305515602231026,0.010142325423657894,-0.003850766457617283,0.0064796931110322475,-0.02305709384381771,0.001017127651721239,0.030927784740924835,0.006629264447838068,-0.014523355290293694,-0.03285924717783928,0.02091732993721962,-0.011418287642300129,0.0068999361246824265,0.01321803592145443,-0.01003846526145935,-0.018744252622127533,0.02313999831676483,0.013628772459924221,-0.0090778898447752,-0.02109922468662262,0.01287233829498291,-0.03185287490487099,-0.0086043206974864,0.026152510195970535,0.03125111758708954,0.004696661606431007,-0.01855216734111309,-0.015583191066980362,0.0006104276981204748,0.004448040388524532,-0.0005100450362078846,0.01986139640212059,0.030662205070257187,-0.00173447176348418,-0.0036795809864997864,-0.0012793831992894411,0.002827088348567486,0.00045024065184406936,-0.014373947866261005,0.008267770521342754,-0.008886759169399738,-0.0008450831519439816,-0.005289812106639147,-0.006936830002814531,0.0065226126462221146,0.009798331186175346,0.017889495939016342,-0.0136047238484025,0.029489947482943535,0.024058619514107704,0.04703368619084358,0.01053951121866703,-0.011942743323743343,-0.006325491238385439,0.024859219789505005,-0.018988609313964844,0.007029836997389793,0.002095634350553155,-0.010833758860826492,0.024263914674520493,0.01123175397515297,0.005272439680993557,0.005016511306166649,0.0008882052497938275,0.009715279564261436,0.028231965377926826,0.0011509652249515057,0.011215967126190662,-0.026575781404972076,0.04156474769115448,0.0007418633904308081,-0.002230135491117835,0.022879324853420258,-0.01662161946296692,-0.0019706222228705883,-0.0023167748004198074,0.008581274189054966,0.0028652134351432323,-0.0032145543955266476,-0.07520604133605957,-0.007061545271426439,-0.011729167774319649,0.0009841747814789414,-0.025977723300457,0.010794728994369507,0.003754367120563984,0.003521977923810482,0.033901214599609375,0.014155914075672626,0.00943202618509531,-0.009946099482476711,0.005498001351952553,0.01893741264939308,0.006062578875571489,0.01219598576426506,-0.0015647594118490815,-0.02068500965833664,0.01269259862601757,0.01126791350543499,0.026505928486585617,-0.004667396657168865,-0.008770874701440334,-0.0034770634956657887,0.02393600344657898,-0.006430535577237606,-0.021581605076789856,-0.0021844510920345783,-0.016194287687540054,-0.006444597616791725,0.015843182802200317,0.018168432638049126,-0.009955976158380508,0.021204259246587753,-0.023616880178451538,-0.024880673736333847,-0.01461457833647728,-0.004281642381101847,-0.011689901351928711,-0.02333357185125351,-0.009173253551125526,0.014674997888505459,-0.02417103573679924,-0.03349624201655388,-0.0005015470087528229,0.03794713318347931,0.01487278938293457,0.010519132018089294,0.020995914936065674,-0.01378744188696146,0.005772730335593224,-0.012292786501348019,-0.015133274719119072,0.009815316647291183,-0.013849737122654915,0.007328382693231106,0.011713342741131783,0.03256461024284363,-0.010901757515966892,0.005834057927131653,-0.0012755849165841937,0.037522975355386734,-0.005179355852305889,0.047613389790058136,0.03018023818731308,0.008469954133033752,0.005859485827386379,-0.010258997790515423,0.012360665947198868,-0.008494068868458271,0.024266401305794716,0.02173321507871151,0.03706818446516991,0.012396135367453098,-0.009697725996375084,-0.018387407064437866,0.004043087363243103,0.009648507460951805,-0.0011232211254537106,-0.0015015670796856284,-0.04023546725511551,0.028086887672543526,0.004074913449585438,0.009831608273088932,-0.027493344619870186,-0.01550245750695467,-0.028628025203943253,0.00677875243127346,-0.002494471613317728,-0.003004826372489333,-0.017415545880794525,0.010356548242270947,-0.001291770488023758,-0.018819255754351616,-0.034017760306596756,0.00044394025462679565,-0.005958083551377058,-0.009301641955971718,0.007203845307230949,-0.00923730805516243,-0.016995083540678024,-0.0033339224755764008,-0.00036465670564211905,-0.004980189260095358,-0.005870554130524397,-0.023823413997888565,0.012731194496154785,-0.007059461437165737,-0.008423292078077793,-0.003472623648121953,-0.0040994263254106045,0.026102907955646515,-0.023671559989452362,-0.019195735454559326,-0.16157668828964233,0.00340232253074646,0.006171805318444967,-0.009357822127640247,0.007190066855400801,-0.004835805855691433,0.014964699745178223,0.023159464821219444,0.00622452050447464,-0.0007253417279571295,-0.006860184948891401,-0.005359855014830828,-0.008642300963401794,-0.002654528245329857,-0.020521754398941994,-0.006507534999400377,-0.008923380635678768,-0.03098880499601364,0.0026674664113670588,-0.010469897650182247,-0.0008850403828546405,0.02292954921722412,0.013262266293168068,0.019816435873508453,-0.02873353101313114,0.0010835443390533328,-0.024976328015327454,0.014857364818453789,-0.04545216262340546,-0.005877971649169922,-0.008099358528852463,-0.051094718277454376,0.01938585191965103,0.01315069105476141,-0.00392702454701066,0.0018472162773832679,0.02863566391170025,-0.024781640619039536,-0.06035397946834564,-0.0023894389159977436,-0.010353054851293564,-0.012807604856789112,-0.014861057512462139,0.014865881763398647,-0.017600897699594498,-0.029971493408083916,0.061048585921525955,0.9818106889724731,-0.0010525464313104749,-0.006213311105966568,-0.02820556052029133,-0.0147541593760252,-0.0032130246981978416,-0.0004402819322422147,-0.0064573464915156364,-0.03130131959915161,0.024092592298984528,0.0017559501575306058,0.024337803944945335,-0.012179815210402012,0.007217493373900652,-0.00019643196719698608,0.04739636555314064,-0.028411120176315308,0.003782880026847124,-0.013858580030500889,0.0042880866676568985,-0.0005554246599785984,-0.01833755522966385,0.01333814486861229,-0.01582300290465355,-0.005819177720695734,0.03112100251019001,-0.0011450437596067786,-0.0008130628266371787,-0.0028992488514631987,0.0031451887916773558,0.003855750896036625,-0.01177959330379963,-0.015793249011039734,0.006554540246725082,-0.007311870809644461,0.0031395130790770054,-0.0011203219182789326,0.005469499155879021,0.013795541599392891,-0.0165444053709507,-0.0159495510160923,-0.01703062653541565,-0.014559871517121792,-0.003204681910574436,-0.0016999389044940472,0.006311227101832628,0.022258693352341652,-0.028374817222356796,0.010575298219919205,-0.004297518637031317,0.010167994536459446,-0.010458584874868393,-0.041504040360450745,0.0015214263694360852,-0.01946239545941353,0.004354444332420826,0.010017192922532558,0.009342125616967678,0.029381314292550087,0.012068482115864754,-0.0034534058067947626,-0.010734566487371922,0.001074482686817646,-0.011346561834216118,0.023798491805791855,-0.024343550205230713,0.02163582481443882,-0.01626325026154518,-0.010725799016654491,0.007695934735238552,0.0042193178087472916,-0.007588863372802734,0.003978765569627285,0.004091065376996994,-0.0007933443412184715,-0.00484965555369854,0.023769719526171684,-0.021840428933501244,0.008572022430598736,0.023183127865195274,0.02488885633647442,0.01870707795023918,0.01828121393918991,-0.0014145190361887217,0.012215912342071533,-0.002729839412495494,-0.015657419338822365,-0.030527345836162567,-0.012881727889180183,0.015487049706280231,-0.031548283994197845,0.019848860800266266,-0.023591378703713417,0.02570461295545101,-0.006526312790811062,0.012067792005836964,0.02114682085812092,-0.0054220655001699924,-0.02039187215268612,0.007835792377591133,0.019661011174321175,-0.02496805042028427,-0.006475337315350771,0.0031851772218942642,0.009451855905354023,-0.0009376404341310263,0.01031663827598095,-0.0108605045825243,0.003769948147237301,0.010398867540061474,-0.010075213387608528,-0.00823882408440113,-0.02700928784906864,-0.005683321040123701,-0.004911352414637804,0.006330309901386499,-0.0055564530193805695,-0.0038747559301555157,0.0120167201384902,-0.01580115221440792,-0.03226003050804138,0.004163866396993399,0.008657161146402359,0.0040634977631270885,-0.04408911243081093,0.03161922097206116,0.006486283615231514,0.010060645639896393,-0.0025840147864073515,0.00113957142457366,-0.013050224632024765,0.010869386605918407,0.2459975928068161,0.009092090651392937,-0.03793390095233917,-0.0032469253055751324,0.0003190846764482558,0.007917548529803753,-0.02666737698018551,0.023163072764873505,-0.012290079146623611,0.009724258445203304,-0.0132380910217762,0.004198822658509016,-0.008375167846679688,0.00683909747749567,-0.020217912271618843,0.002947496948763728,-0.009747331030666828,0.026003532111644745,-0.0037242870312184095,0.022613998502492905,-0.023395869880914688,0.0022832273971289396,-0.006669403985142708,-0.0024927938356995583,-0.021825291216373444,-0.013315917924046516,-0.0012253940803930163,0.023189712315797806,-0.03471234440803528,-0.011385370045900345,-0.02655322663486004,-0.0031325751915574074,0.015633711591362953,-0.003068840829655528,-0.026413053274154663,-0.011185815557837486,0.018238667398691177,-0.004929790273308754,0.026514537632465363,0.009632270783185959,-0.003572311718016863,0.027120327576994896,-0.02087739109992981,-0.02637144923210144,-0.006383596919476986,0.004123745486140251,0.02483913116157055,0.005369244143366814,-0.007328059058636427,0.01024903729557991,-0.016877926886081696,-0.012973512522876263,0.003975631669163704,-0.013377309776842594,0.004893761593848467,-0.004996800795197487,0.02319370210170746,0.0037054435815662146,0.0072725266218185425,0.022972501814365387,-0.01517010759562254,0.004069669172167778,-0.0042940122075378895,-0.016744667664170265,-0.01068955659866333,-0.015243057161569595,-0.018510498106479645,-0.019145015627145767,-0.00912788137793541,-0.0075556132942438126,0.010182347148656845,-0.005206482019275427,0.01743040606379509,-0.0007997811189852655,-0.014532523229718208,-0.00067945069167763,0.006718762218952179,0.022226233035326004,-0.004578493535518646,-0.022632578387856483,0.008267250843346119,0.017513759434223175,-0.022814568132162094,-0.006691351067274809,-0.021539321169257164,-0.00888137798756361,0.014755193144083023,0.008042554371058941,0.0015896244440227747,0.021798497065901756,-0.007849039509892464,0.006578005384653807,-0.0055428254418075085,0.006116731092333794,-0.015001829713582993,-0.019554579630494118,-0.007785774767398834,0.02040751464664936,-0.025492532178759575,-0.00821206346154213,-0.0066294618882238865,0.037667080760002136,-0.028157902881503105,-0.021242821589112282,0.010253235697746277,-0.007187087554484606,-3.520357859088108e-05,0.02385828085243702,0.01089233998209238,0.0022728980984538794,0.005316834431141615,-0.01998273842036724,0.01461679395288229,0.013832340016961098,0.007262784522026777,-0.012648496776819229,-0.009051050059497356,-0.033575791865587234,-0.00747893238440156,-0.03617634251713753,0.0220425296574831,0.0017398004420101643,0.004811438266187906,0.02843918651342392,-0.002286841394379735,0.006257237400859594,-0.01945270411670208,0.017499685287475586,-0.023666085675358772,-0.016895325854420662,0.002282678848132491,-0.007624209858477116,0.007207959890365601,-0.006293528713285923,-0.020177796483039856,-0.003746634116396308,-0.006256566848605871,-0.015105302445590496,-0.006818957626819611,0.018156519159674644,-0.01274674292653799,0.01243944838643074,0.0105810035020113,-0.0063088322058320045,0.0032396663445979357,-0.03164929896593094,-0.035733047872781754,0.009609056636691093,-0.013169439509510994,0.0036550562363117933,-0.008572053164243698,-0.004731568042188883,0.004120629280805588,-0.011856756173074245,-0.011306862346827984,0.005262575577944517,0.02595662698149681,-0.004940795246511698,-0.009775150567293167,-0.03238667547702789,0.005793406628072262,0.010553449392318726,0.0008148389752022922,-0.0007877881871536374,-0.0032798685133457184,0.006785908713936806,-0.011795222759246826,-0.01602354645729065,-0.016377029940485954,-0.009116258472204208,0.010402055457234383,0.004437653347849846,-0.022566014900803566,-0.022007187828421593,0.02023080363869667,-0.003604559926316142,0.006067132577300072,-0.011337265372276306,-0.014182385057210922,-0.010038007982075214,-0.006793164648115635,0.0037653238978236914,0.009833801537752151,0.010462429374456406,-0.00790118146687746,-0.004945536609739065,-0.0012840026756748557,0.007104499265551567,-0.009239699691534042,-0.008004387840628624,0.01949058100581169,-0.0015984406927600503,-0.018620364367961884,-0.032563287764787674,-0.002228895202279091,0.00828341394662857,0.00689906207844615,0.0028591484297066927,0.019784672185778618,-0.013761552050709724,-0.00625575939193368,0.008787696249783039,0.013302549719810486,-0.0003382268769200891,-0.007775155361741781,0.029688289389014244,-0.006860014982521534,0.0013221196131780744,-0.32119953632354736,0.006159412208944559,-0.003376817563548684,0.028703855350613594,-0.03194168582558632,-0.008820722810924053,0.008287758566439152,-0.02395455725491047,-0.0224637258797884,-0.0013038734905421734,-0.003372527426108718,-0.007155450060963631,-0.0028817488346248865,-0.00845126062631607,0.027503907680511475,-0.014764640480279922,-0.03046306036412716,0.012154955416917801,0.007588366512209177,-0.010845320299267769,0.01483000349253416,0.006713003385812044,0.02642311342060566,0.016681404784321785,0.017602549865841866,0.02253938838839531,-0.005819640588015318,-0.009398341178894043
M1A,-0.017276426777243614,-0.010880902409553528,0.008981060236692429,0.018437793478369713,0.009471656754612923,0.028955936431884766,0.004029976669698954,-0.014860262162983418,0.004674800671637058,0.0077241938561201096,-0.0022595999762415886,0.00026876945048570633,-0.009780071675777435,0.013653715141117573,-0.01778533309698105,-0.003757685888558626,0.015630919486284256,-0.005602208431810141,0.017657019197940826,-0.003771688789129257,0.035512883216142654,0.01827566884458065,-0.0032696728594601154,0.37915754318237305,-0.008901053108274937,-0.01065334677696228,-0.017766287550330162,-0.010809063911437988,-0.005115610081702471,0.0029504408594220877,-0.010391738265752792,0.020773671567440033,-0.034141119569540024,0.006512937135994434,0.021976076066493988,0.0019211671315133572,-0.011052493005990982,-0.001968678319826722,-0.037326835095882416,-0.016024678945541382,-0.01438333559781313,-0.0022385951597243547,-0.0068240175023674965,0.004678809083998203,0.01964373141527176,0.0003099341702181846,-0.018592944368720055,0.002493655774742365,0.008608534932136536,-0.014027525670826435,-0.012218667194247246,-0.017929010093212128,-0.030100392177700996,0.010455160401761532,-0.03395811840891838,0.007836432196199894,0.009855185635387897,-0.009298627264797688,0.013679679483175278,0.030264219269156456,-0.027603283524513245,0.000898704573046416,0.0138377845287323,-0.03230646252632141,-0.017809484153985977,0.0018783054547384381,-0.033669933676719666,0.01796618476510048,-0.011091149412095547,0.011319022625684738,0.010568739846348763,0.01134779118001461,-0.013599022291600704,0.0021085755433887243,-0.022550784051418304,-0.01870673894882202,0.016083471477031708,-0.018748309463262558,-0.0091304462403059,-0.0014175924006849527,-0.020794318988919258,0.002910431008785963,-0.03567715361714363,0.0024752099998295307,0.013316348195075989,0.019035927951335907,-0.04514971747994423,0.0007749928627163172,-0.025027025490999222,0.023959092795848846,0.001298059825785458,0.026551170274615288,0.004812372382730246,-0.014354129321873188,0.00843194592744112,-0.0012871591607108712,-0.003261833218857646,0.003437748411670327,-0.006360063329339027,0.004633563105016947,-0.03608839213848114,-0.011779841035604477,0.010831614956259727,0.0022089395206421614,0.003234297037124634,-0.01728278025984764,-0.012917067855596542,-0.01719515211880207,-0.0016064710216596723,-0.020206473767757416,-0.013172590173780918,0.021514929831027985,-0.026706214994192123,0.00414764229208231,-0.019469603896141052,0.012575062923133373,-0.00929535273462534,-0.0027713312301784754,-0.013017158955335617,-0.008012648671865463,0.01558518037199974,-0.008816048502922058,-0.004744730424135923,-0.012749354355037212,0.005118170753121376,0.015327796339988708,0.01390095241367817,0.01262161135673523,-0.043105389922857285,-0.009091650135815144,0.018257267773151398,0.006333904340863228,0.011819425970315933,0.005847279913723469,0.003378811292350292,-0.005588650703430176,-0.019323451444506645,-0.025666965171694756,-0.011502929963171482,-0.012151534669101238,-0.01381288655102253,0.015529072843492031,-0.006871182471513748,0.004664497449994087,-0.008721519261598587,0.013106024824082851,0.01862930878996849,-8.156512922141701e-05,-0.014189254492521286,-0.012907827273011208,0.0012072899844497442,-0.005261920392513275,-0.0061330646276474,0.007815350778400898,0.021266726776957512,0.008146769367158413,-0.005296843126416206,-0.009295810014009476,0.0255303755402565,0.0002963455917779356,-0.0076898131519556046,-0.010480574332177639,-0.009540456347167492,-0.0050051831640303135,-0.0095510333776474,-0.0039214505814015865,-0.009409614838659763,-0.002755523659288883,-0.023264072835445404,0.01357706543058157,0.010480488650500774,0.0014209026703611016,-0.010480999946594238,-0.02375522442162037,-0.010901883244514465,0.01785835064947605,-0.02546270377933979,-0.02058607153594494,-0.006097643636167049,-0.025059377774596214,0.02187715470790863,-0.01663021929562092,-0.01899026706814766,-0.01467652153223753,-0.014685004949569702,-0.009627844206988811,-0.022344211116433144,-0.003443557769060135,-0.022815223783254623,-0.011943272314965725,0.005645186640322208,-0.0032096949871629477,0.01313809584826231,-0.0044182888232171535,0.02083146572113037,-0.005354658234864473,0.010323431342840195,0.014563275501132011,-0.018924396485090256,0.0020472747273743153,-0.00571802444756031,0.007921863347291946,0.006764682941138744,0.03430280089378357,-0.001674668863415718,0.008320621214807034,-0.02018684521317482,0.020094502717256546,0.009852361865341663,0.5569598078727722,-0.012342844158411026,0.012319181114435196,0.47931209206581116,0.006264282390475273,0.00124645687174052,-0.0130461435765028,-0.01841871626675129,-0.014656145125627518,-0.020812926813960075,0.0075714681297540665,-0.007376348599791527,-0.004333338234573603,-0.0010363757610321045,0.015002293512225151,-0.021645117551088333,0.004449836909770966,0.00932079367339611,-0.008998862467706203,0.011258479207754135,-0.0034402513410896063,-0.01908150501549244,-0.008818089962005615,0.005503375548869371,-0.028863243758678436,-0.02002345770597458,-0.012167816050350666,-0.011881188489496708,0.012770884670317173,-0.010705175809562206,-0.007696579676121473,-0.011561448685824871,-0.008230401203036308,-0.020748406648635864,0.018619120121002197,0.02950645238161087,0.0011319720651954412,-0.0047056484036147594,-0.0027025933377444744,-0.050297513604164124,-0.01124287024140358,-0.008838647045195103,-0.021122975274920464,0.006960881408303976,0.021087558940052986,0.007076495327055454,0.0036141807213425636,-0.009338237345218658,0.08413335680961609,-0.0007511902949772775,-0.004001496359705925,-0.003810357768088579,-0.0012528494698926806,0.02335922233760357,-0.0060341316275298595,-0.04660026356577873,-0.024183038622140884,0.006517862435430288,-0.01054030004888773,-0.002831073710694909,0.0044850753620266914,0.0006811779458075762,0.002680764766409993,0.012032636441290379,-0.012292063795030117,-0.007086688652634621,0.016042368486523628,0.01550977397710085,-0.009097210131585598,0.001676183775998652,-0.0073095280677080154,-0.0036308174021542072,-0.008086476475000381,0.02319078892469406,0.0042818328365683556,0.012931447476148605,-0.005651732906699181,-0.0006350551266223192,-0.0039469171315431595,0.003042281372472644,0.011537283658981323,0.01796891912817955,-0.019306786358356476,0.0025409208610653877,-0.015068668872117996,0.028993308544158936,0.01603825017809868,-0.006003691349178553,-0.00836546067148447,0.019497444853186607,-0.006909043062478304,0.015401359647512436,-0.008162117563188076,-0.02348216436803341,-0.005816368386149406,0.021305708214640617,-0.0016839727759361267,0.01416179072111845,0.020025618374347687,0.029951240867376328,0.015993740409612656,-0.00672792736440897,0.02596956491470337,0.000686919316649437,-0.005170101765543222,-0.05152789130806923,-0.0049194456078112125,0.007717322092503309,-0.009465042501688004,-0.002457893220707774,-0.0037592623848468065,-0.010229089297354221,0.021503128111362457,-0.0006208863924257457,0.00921932328492403,-0.04301586002111435,-0.0006221234798431396,-0.009728411212563515,-0.018265780061483383,0.024547306820750237,-0.002535097533836961,-0.006154625676572323,-0.009311722591519356,-0.01017138734459877,0.011012839153409004,0.001501785358414054,0.004886947106570005,-0.00011874590563820675,0.00808554794639349,0.0177858155220747,0.015187468379735947,-0.015901850536465645,-0.005288042593747377,0.011004418134689331,0.0019610561430454254,0.0007019913173280656,0.010082943364977837,-0.011578870005905628,-0.015368912369012833,0.017261719331145287,-0.006339467596262693,0.0001727268099784851,0.004215317778289318,-0.005791631992906332,0.016670413315296173,-0.010804509744048119,0.009127331897616386,-0.008506936021149158,0.01394517719745636,0.026147374883294106,0.024356646463274956,-0.017566191032528877,-0.03246286138892174,0.014060665853321552,-0.016797583550214767,-0.0015779172535985708,0.0005692463018931448,-0.009850860573351383,-0.006643717177212238,0.016477622091770172,0.01293272152543068,-0.007671930827200413,-0.008373778313398361,0.012583686970174313,-0.02233102358877659,-0.00011094877118011937,0.011922033503651619,0.029462065547704697,-0.011031808331608772,-0.015008803457021713,-0.016400091350078583,-0.0006949141970835626,0.01892009563744068,0.010605145245790482,0.017326287925243378,0.031093068420886993,-0.01002086978405714,-0.009869351983070374,0.0005588298663496971,0.0025586874689906836,0.004903305321931839,-0.008098747581243515,0.016569385305047035,-0.018796809017658234,-0.012708299793303013,0.004744098521769047,0.0010853515705093741,0.0039022911805659533,0.011919336393475533,0.018271123990416527,-0.012266387231647968,0.01975848898291588,0.019069155678153038,0.03957362473011017,0.004017405677586794,-0.009905700571835041,0.00038107504951767623,0.015510360710322857,-0.012474166229367256,-0.005811827257275581,0.006108542438596487,-0.02432876080274582,0.017860064283013344,0.0036997199058532715,0.004540326073765755,0.011465851217508316,-0.006777315400540829,-0.0012406455352902412,0.023258276283740997,-0.009795734658837318,0.009980197064578533,-0.028606103733181953,0.053091950714588165,0.014906833879649639,-0.0057200170122087,0.02263951674103737,-0.013732005842030048,-0.016325823962688446,-0.006032319273799658,0.013654954731464386,-0.003506343811750412,-0.01733696088194847,-0.050442781299352646,-0.006212297827005386,-0.012482729740440845,-0.006333163008093834,-0.033478736877441406,0.010647389106452465,0.01176049467176199,0.02129371650516987,0.03122176043689251,0.0020760861225426197,0.010100879706442356,-0.012943749316036701,-0.01991417445242405,0.020186172798275948,0.004282657522708178,0.0124986432492733,-0.0038326126523315907,-0.012899345718324184,0.005615932866930962,0.011974141001701355,0.011585419066250324,-0.005432612262666225,-0.0068969400599598885,-0.004428201820701361,0.02290518768131733,0.0043680304661393166,-0.016973618417978287,0.009350016713142395,-0.018458541482686996,-0.01234537921845913,-0.0007427781820297241,0.004836066626012325,-0.004073866177350283,0.019172552973031998,-0.025186903774738312,-0.02770914137363434,-0.022456424310803413,0.0045914542861282825,-0.0008976096287369728,-0.02641710825264454,0.002270753961056471,0.02455667406320572,-0.0173187293112278,-0.020833676680922508,0.001743942964822054,0.031208237633109093,0.012447547167539597,0.008459829725325108,0.040459051728248596,-0.020778555423021317,0.004298745654523373,-0.0016831938410177827,-0.014651753939688206,-0.0014397106133401394,-0.021583087742328644,0.007900853641331196,0.016913780942559242,0.011779923923313618,-0.019155588001012802,-0.0038082359824329615,-0.004444347694516182,0.02570093423128128,-0.011886551976203918,0.03376798331737518,0.020219437777996063,0.007041081786155701,-0.008365467190742493,-0.009297559969127178,0.0010734137613326311,-0.005845322739332914,0.026463577523827553,0.022385651245713234,0.027775410562753677,0.006941022351384163,-0.016975199803709984,-0.015023317188024521,0.0013407380320131779,-0.003401883179321885,-0.0015960955061018467,-0.009075821377336979,-0.034132763743400574,0.022017555311322212,-0.009720176458358765,0.005719380918890238,-0.026568487286567688,0.0025269165635108948,-0.024680951610207558,0.00035967305302619934,0.014151637442409992,0.001655260450206697,-0.025208836421370506,0.015448533929884434,0.0008280925103463233,-0.018067127093672752,-0.031650763005018234,0.004982043523341417,-0.000955407798755914,0.004120299592614174,0.013206877745687962,-0.013281742110848427,-0.00858941487967968,-0.011695457622408867,-0.0010082678636536002,0.0034530689008533955,-0.021133042871952057,-0.029145240783691406,0.015837527811527252,-0.007792001590132713,-0.011379859410226345,-0.0011314073344692588,-0.002584903733804822,0.020226048305630684,-0.007100505754351616,-0.0015598350437358022,-0.11944368481636047,-0.0031612564343959093,0.003631230443716049,0.004260627552866936,0.00268351286649704,-0.003098305081948638,0.010166393592953682,0.002055788179859519,-0.002426725812256336,-0.003353464649990201,0.000562393048312515,-0.005229329224675894,-0.0017548634205013514,0.0072121270932257175,-0.01645996794104576,-0.01401517167687416,-0.010160080157220364,-0.012766748666763306,-0.00461044255644083,-0.00582488439977169,0.01616685651242733,0.012837929651141167,-0.005468923132866621,0.013252251781523228,-0.018199782818555832,0.004807797726243734,-0.02605140209197998,0.010764898732304573,0.002986028790473938,-0.006888865493237972,0.005557006690651178,-0.05726120248436928,-0.0010331047233194113,0.010274264961481094,-0.003234320320188999,-0.0005386843113228679,0.025494541972875595,-0.020861221477389336,-0.05962492525577545,0.009567458182573318,-0.01465304009616375,-0.007990694604814053,-0.0020785967353731394,0.009049090556800365,-0.012947168201208115,-0.023194855079054832,0.054130442440509796,0.9024466276168823,0.009135127067565918,0.0019230387406423688,-0.018546126782894135,-0.012904015369713306,-0.008035548962652683,0.01335944700986147,-0.019731812179088593,-0.029984990134835243,0.019112156704068184,0.008977764286100864,0.02035963349044323,-0.013706662692129612,0.006779641378670931,0.009455214254558086,0.04094612970948219,-0.024079419672489166,0.004849571269005537,-0.014199556782841682,0.0008499119430780411,-0.009681087918579578,-0.023383645340800285,0.009796802885830402,-0.015558063983917236,-0.003323648124933243,0.017963608726859093,-0.00203835335560143,0.0011834007455036044,0.00491977296769619,-0.007937881164252758,-0.005262322723865509,-0.003804398002102971,-0.016958747059106827,-0.003282086690887809,-0.011416364461183548,0.01286602858453989,-0.006630523130297661,-0.0011191164376214147,0.004940856713801622,-0.014697994105517864,-0.022745056077837944,-0.008846532553434372,-0.013969715684652328,0.0017281225882470608,-0.008517683483660221,0.007247489411383867,0.01890215091407299,-0.026836490258574486,6.938891601748765e-05,0.001732710632495582,0.007595106028020382,-0.018314113840460777,-0.04010794311761856,-0.00641429191455245,-0.01127154566347599,0.01175597496330738,0.0034763130825012922,0.006335025653243065,0.03426449000835419,0.018229089677333832,-0.007080940529704094,-0.0019554859027266502,-0.004675982519984245,-0.013152262195944786,0.023204512894153595,-0.02040066570043564,0.015373099595308304,-0.014312139712274075,0.005165736656636,0.004331675823777914,-0.005786389112472534,-0.018901603296399117,0.004677165765315294,0.0014390511205419898,0.0024386653676629066,-0.016079839318990707,0.02336443029344082,-0.02009023167192936,0.01043131947517395,0.023074645549058914,0.011602839455008507,0.009496576152741909,0.021837709471583366,0.002024784218519926,-0.0003498090663924813,0.007587092462927103,0.0011233595432713628,-0.02622848004102707,-0.008805560879409313,0.0023148285690695047,-0.03196418657898903,0.02640860341489315,-0.019589349627494812,0.019306756556034088,0.001447894494049251,0.011898744851350784,0.011655231937766075,-0.009777646511793137,-0.020511556416749954,0.0018907259218394756,0.011913597583770752,-0.024072332307696342,-0.009915770962834358,0.005440805107355118,0.005321973003447056,0.001167618203908205,0.011997032910585403,-0.0021006062161177397,-0.008863632567226887,0.01684480533003807,-0.0017288499511778355,0.0021237563341856003,-0.0438150092959404,-0.017127443104982376,-0.003161616623401642,-0.009133453480899334,-0.01181368250399828,-0.006462770979851484,0.015713170170783997,-0.02545515075325966,-0.027333863079547882,0.013348463922739029,0.012941103428602219,0.0008946754387579858,-0.04980991780757904,0.02694646455347538,-0.010273091495037079,0.0006432285299524665,-0.0009545423090457916,-0.009022467769682407,-0.006842173635959625,0.017144368961453438,0.23985058069229126,0.00686835078522563,-0.022469351068139076,-0.0026344202924519777,0.0042612445540726185,-0.004626328591257334,-0.026375167071819305,0.011815464124083519,-0.009307323954999447,0.011806829832494259,-0.004698663018643856,-0.00785962026566267,-0.01661304384469986,0.003491169074550271,-0.011463846080005169,-0.005505809560418129,-0.009917903691530228,0.017420310527086258,-0.01152502465993166,0.010635212995111942,-0.013396401889622211,-0.004414616152644157,-0.0022725427988916636,-0.013109867461025715,-0.03481472656130791,-0.012802289798855782,-0.005075709894299507,0.011968891136348248,-0.034303948283195496,-0.009092321619391441,-0.02002079039812088,-0.014876019209623337,0.020059429109096527,0.0027815736830234528,-0.014879744499921799,-0.0031088320538401604,0.01595160737633705,0.006882359739392996,0.023432577028870583,0.012734442949295044,-0.010167152620851994,0.003898133058100939,0.000993491499684751,-0.008752245455980301,-0.01011294312775135,0.0034329784102737904,0.03181298077106476,-0.005515957251191139,-0.0158447977155447,-0.007704288698732853,-0.005018610041588545,-0.01509864255785942,0.007019576150923967,-0.0014088532188907266,-0.0087267542257905,0.0012565830256789923,0.008511671796441078,0.002625628374516964,0.012418333441019058,0.020610740408301353,-0.011414953507483006,0.0147117143496871,-0.015082518570125103,-0.011696134693920612,-0.019164906814694405,-0.004756252747029066,0.0013520914362743497,-0.009096703492105007,-0.0035656983964145184,-0.0027150516398251057,0.010349159128963947,-0.00886596366763115,0.005761327687650919,0.0053389230743050575,-0.002986050443723798,0.004301166161894798,-0.0009102498297579587,0.019909534603357315,0.003230135887861252,-0.0039006019942462444,-0.005866240244358778,0.01950211077928543,-0.02162940613925457,-0.012577028945088387,-0.034747689962387085,-0.002957950346171856,0.004162155091762543,0.0015980147290974855,-0.021632453426718712,0.007143148221075535,7.984715921338648e-05,0.02491595596075058,-0.0028906415682286024,0.01841052621603012,-0.012095477432012558,-0.019575027748942375,-0.005143188405781984,0.01806766167283058,-0.012531515210866928,0.0004897917388007045,0.004653149284422398,0.027262521907687187,-0.016078513115644455,-0.01472380105406046,0.004353705793619156,-0.00872228667140007,-0.004071599803864956,0.021990392357110977,0.012599227018654346,0.008328999392688274,0.012003046460449696,-0.018440833315253258,0.009232699871063232,-0.002983450423926115,-0.0005130100180394948,-0.02013547532260418,-0.01466559711843729,-0.023322932422161102,-0.013957589864730835,-0.03264857828617096,0.022655198350548744,0.003344574011862278,0.003798676887527108,0.025564247742295265,0.0025364484172314405,0.0060335262678563595,-0.004076490644365549,0.014747705310583115,-0.01614808291196823,-0.0030391395557671785,-0.008100569248199463,-0.008035672828555107,0.005289106164127588,-0.0073173269629478455,-0.02904156781733036,-0.005866313818842173,-0.0005477661616168916,-0.012117615900933743,-0.0002314509474672377,0.006215489935129881,-0.008608197793364525,0.00792930368334055,0.00014482335245702416,-0.014268125407397747,-0.0006827933248132467,-0.03322708606719971,-0.020302681252360344,-0.0062286327593028545,-0.011893270537257195,0.015333539806306362,-0.007242216728627682,0.001161293825134635,-0.0072610387578606606,-0.006612105295062065,-0.007837929762899876,-0.00044182376586832106,0.03493632376194,-0.010952532291412354,0.006458675488829613,-0.020748434588313103,0.0045148227363824844,0.0040642679668962955,0.002475201850757003,0.003285642247647047,0.007865686900913715,-0.0040862369351089,-0.009888416156172752,-0.014702563174068928,-0.01735905185341835,-0.011993810534477234,0.001499177305959165,0.0038384885992854834,-0.01745213381946087,-0.023908130824565887,0.01315443404018879,-0.00641040550544858,0.0013223766582086682,-0.008147869259119034,-0.020865222439169884,-0.009077396243810654,-0.010654781945049763,0.006303587928414345,0.010927663184702396,0.0025809751823544502,0.0042100390419363976,-0.015797603875398636,-0.002061925595626235,0.015744050964713097,-0.009191731922328472,-0.011165374889969826,0.009707717224955559,-0.0019850379321724176,-0.0004851652483921498,-0.019892271608114243,-0.009206203743815422,0.010666269809007645,0.014916479587554932,0.012498144060373306,0.018729455769062042,-0.014633940532803535,-0.005376426037400961,-0.00489518977701664,0.010036913678050041,-0.007581256330013275,-0.001595881418325007,0.0216745063662529,0.00042586991912685335,0.00019524391973391175,-0.28283390402793884,0.006789650768041611,-0.01723819598555565,0.034106574952602386,-0.027168868109583855,-0.008676489815115929,0.006821285467594862,-0.009043090045452118,-0.021047810092568398,-0.009536616504192352,0.010300669819116592,0.013111763633787632,-0.0747784897685051,0.002008473500609398,0.026628680527210236,-0.014646770432591438,-0.02764192968606949,0.01620403677225113,0.013592390343546867,-0.01132750604301691,0.02359197475016117,-0.006962085608392954,0.01370517909526825,0.02437569759786129,0.010858259163796902,0.015824072062969208,-0.003175378544256091,-0.00039892178028821945
M1C,-0.018341753631830215,-0.025539033114910126,0.01853204518556595,0.024486547335982323,0.016176216304302216,0.04443879798054695,0.008581191301345825,-0.010083982720971107,-0.007830549962818623,0.003284840378910303,-0.003995017614215612,-0.011876345612108707,-0.008428562432527542,0.005595188122242689,-0.022265685722231865,0.001662535942159593,0.013353753834962845,-0.0025921217165887356,0.02441009134054184,0.0001660971320234239,0.058188293129205704,0.029583347961306572,-0.006519378162920475,0.3479084372520447,-0.021715909242630005,-0.019117014482617378,-0.009035938419401646,-0.018596015870571136,-0.011166431941092014,0.007530915085226297,-0.00871133990585804,0.016990400850772858,-0.02762291394174099,0.010723439045250416,0.015439821407198906,-0.0035625058226287365,-0.018217984586954117,0.0031562538351863623,-0.04295475780963898,-0.012657715938985348,-0.014729930087924004,-0.0037170490249991417,-0.019147507846355438,-0.00383202638477087,0.013094448484480381,-0.011987440288066864,-0.015936801210045815,-0.005594209767878056,0.005775304976850748,-0.008479018695652485,-0.020211027935147285,-0.017978452146053314,-0.028328610584139824,0.016913337633013725,-0.037265513092279434,0.010431942529976368,0.009145677089691162,-0.013556144200265408,0.024020381271839142,0.03885391727089882,-0.03152696415781975,0.0013698642142117023,0.00901208445429802,-0.02497042529284954,-0.0021386125590652227,-0.004683790262788534,-0.028836071491241455,0.019080815836787224,-0.023772722110152245,0.008931024000048637,0.018486490473151207,0.02107340656220913,-0.005845600739121437,-0.0063661206513643265,-0.03973745182156563,-0.022343628108501434,0.028275208547711372,-0.030222028493881226,-0.0159049853682518,-0.010608927346765995,-0.013852634467184544,0.00048253065324388444,-0.050275832414627075,0.02175888791680336,0.007911031134426594,0.016837183386087418,-0.055372901260852814,-0.005536099895834923,-0.020779451355338097,0.0230710469186306,0.0012719063088297844,0.030475199222564697,0.010810814797878265,-0.007474816404283047,0.012107942253351212,0.007032586261630058,0.000498463399708271,0.01336344052106142,-0.005032867658883333,0.0048985895700752735,-0.04895643889904022,-0.011731511913239956,0.005937736947089434,0.001190346316434443,0.00522417901083827,-0.026001954451203346,-0.02813495136797428,-0.013851367868483067,0.0050677224062383175,-0.011624159291386604,0.0027593178674578667,0.023476723581552505,-0.027388202026486397,-0.0011946955928578973,-0.021312108263373375,0.01530364342033863,-0.016978472471237183,-0.010512333363294601,-0.013755970634520054,0.007387487217783928,0.010206152684986591,0.0032815756276249886,-0.009391086176037788,-0.024690192192792892,0.0059468187391757965,0.019331930205225945,0.019754480570554733,0.007327975705265999,-0.046243634074926376,-0.009916665963828564,0.0203019417822361,0.00554588483646512,0.01182379201054573,0.017276674509048462,-0.00343492953106761,0.0014818602940067649,-0.015459507703781128,-0.033051833510398865,-0.03478434309363365,-0.00532451830804348,-0.013560038059949875,0.015711253508925438,-0.0074092913419008255,0.02203799970448017,-0.008897863328456879,0.014232814311981201,0.009581409394741058,0.009660026989877224,-0.022881994023919106,-0.01782584935426712,0.008923432789742947,0.001411287346854806,-0.01213361881673336,0.00691012991592288,0.02751542441546917,0.006273812148720026,-0.007181362248957157,0.0062345173209905624,0.028858117759227753,0.005895042791962624,0.0009159441688098013,-0.00347311794757843,-0.0024316490162163973,-0.003683764021843672,-0.021689850836992264,-0.002144950209185481,-0.011611069552600384,-0.0053525338880717754,-0.005935951601713896,0.011164341121912003,0.012420766055583954,0.002689481945708394,0.00018967129290103912,-0.02240406535565853,-0.010411894880235195,0.025077421218156815,-0.03307976946234703,-0.010281515307724476,-0.0010105628753080964,-0.0026914116460829973,0.03368077799677849,-0.02467283606529236,-0.0008647919748909771,-0.0007009053369984031,-0.011705956421792507,-0.0066024321131408215,-0.02280631847679615,-0.011226654052734375,-0.02705315127968788,-0.019694315269589424,-0.003500011283904314,-0.0027663304936140776,0.018395859748125076,-0.00012729648733511567,0.025738315656781197,0.007703123614192009,0.008090509101748466,0.016916392371058464,-0.030034204944968224,0.006304561160504818,-0.012511897832155228,-0.004254236817359924,0.0017068556044250727,0.03913215920329094,-0.016345879063010216,0.0017803641967475414,-0.007803504820913076,0.02621764875948429,0.010489239357411861,0.635289192199707,-0.020204437896609306,0.007531561888754368,0.4450940489768982,0.012972118332982063,0.005105448421090841,-0.03431282564997673,-0.020608866587281227,-0.014807711355388165,-0.01582999899983406,0.01940566673874855,0.004768465645611286,-0.009437778033316135,-0.0009858112316578627,0.01775863952934742,-0.02415516786277294,0.033720627427101135,0.005386203061789274,0.008483425714075565,0.007763552945107222,0.00021747582650277764,-0.007242489140480757,-0.011364779435098171,0.00444415770471096,-0.022131506353616714,-0.026903651654720306,-0.01752874068915844,-0.014539193361997604,0.020078489556908607,-0.022260533645749092,-0.02199060283601284,-0.015412638895213604,-0.008556928485631943,-0.026697803288698196,0.014768739230930805,0.030789123848080635,-0.011210148222744465,-0.015399441123008728,-0.001987977884709835,-0.059358760714530945,-0.029847826808691025,-0.01155385933816433,-0.01773274876177311,-0.012062739580869675,0.026351168751716614,-0.003063949989154935,0.013824253343045712,-0.014832370914518833,0.09943834692239761,-0.010775313712656498,0.0025510690174996853,-0.007423978764563799,0.00027761628734879196,0.01604723557829857,-0.006559474393725395,-0.05679263174533844,-0.009882011450827122,0.0014454895863309503,-0.010443022474646568,0.0031699289102107286,-0.0006203953525982797,0.006215613801032305,0.019623856991529465,0.013541746884584427,-0.021091587841510773,-0.009019991382956505,0.006282614544034004,0.02178085222840309,-0.01656045950949192,0.004038924351334572,-0.02032952569425106,-0.011065008118748665,0.0017318709287792444,0.033479854464530945,0.0035453704185783863,0.008888527750968933,0.0029810136184096336,-0.005299051757901907,-0.004681171849370003,0.008668198250234127,0.006413914728909731,0.026553845033049583,-0.02303708717226982,-0.0002624264161568135,-0.01957240328192711,0.019609326496720314,0.007366490084677935,-0.0002866747381631285,-0.008094962686300278,0.013848965056240559,-0.012156222015619278,0.019349822774529457,-0.013116549700498581,-0.01928877830505371,0.00022255972726270556,0.028848353773355484,0.0025871533434838057,0.016984272748231888,0.01989617571234703,0.035497743636369705,0.024132661521434784,0.00047752136015333235,0.03831248730421066,-0.005017990246415138,-0.01184523943811655,-0.06461438536643982,-6.768252205802128e-05,-0.007050158455967903,-0.02344946376979351,-0.011890541762113571,-0.014931336045265198,-0.020856086164712906,0.016283968463540077,0.0003334327193442732,0.0014294005231931806,-0.04363105073571205,-0.008520200848579407,-0.014541622251272202,-0.013486891053617,0.012187696062028408,0.012683992274105549,-0.008316617459058762,-0.014946232549846172,-0.011833857744932175,0.013586736284196377,0.0046789818443357944,0.0033113015815615654,0.003293578512966633,0.01020245160907507,0.03674308583140373,0.008199616335332394,-0.023912562057375908,-0.01346680149435997,0.008556759916245937,0.002122008241713047,0.00480921333655715,0.003691920079290867,-0.019688811153173447,-0.022141458466649055,0.014387200586497784,-0.00735783064737916,-0.004446575418114662,0.008509080857038498,0.0059443749487400055,0.023832174018025398,-0.012245532125234604,0.01072684396058321,-0.014693453907966614,0.021026255562901497,0.029199600219726562,0.015552189201116562,-0.01636556349694729,-0.03338371962308884,0.01837480254471302,-0.01854250207543373,0.00022348988568410277,0.016014479100704193,-0.01632368192076683,-0.021754153072834015,0.023755205795168877,0.0016614790074527264,-0.005821545608341694,-0.023403044790029526,0.01694103702902794,-0.02683643065392971,-0.005447632633149624,0.015094907954335213,0.029268940910696983,-0.013244726695120335,-0.013172682374715805,-0.018722908571362495,0.006810909137129784,0.021993445232510567,0.007468620780855417,0.013076063245534897,0.02944597229361534,0.0022834534756839275,-0.007692408282309771,-0.0006130400579422712,0.003301856108009815,-0.003823826787993312,-0.012119695544242859,0.021840395405888557,-0.021372592076659203,-0.007596464827656746,0.0011782548390328884,0.009342102333903313,0.0018117385916411877,0.00364353833720088,0.017470411956310272,-0.00651979073882103,0.02307627908885479,0.012377644889056683,0.03884520381689072,0.00762227363884449,-0.013614914380013943,-0.00692080520093441,0.024425601586699486,-0.010102949105203152,0.002456474816426635,0.012839492410421371,-0.013083456084132195,0.009784986265003681,0.009623095393180847,-0.0011670837411656976,0.003711715340614319,0.002296701306477189,0.005338682793080807,0.02807600051164627,-0.01509671751409769,0.007922747172415257,-0.02608235739171505,0.044652000069618225,0.007651957217603922,-0.015313293784856796,0.02263571508228779,-0.020651008933782578,-0.01257980428636074,-0.009709528647363186,0.02659636363387108,0.0018326211720705032,-0.013675086200237274,-0.0731162503361702,-0.005344973877072334,-0.018250320106744766,-0.003770501585677266,-0.03168310225009918,0.01703818328678608,0.014078418724238873,0.016902733594179153,0.03186221793293953,0.020070619881153107,0.010287034325301647,-0.02290993183851242,-0.014663838781416416,0.02238008752465248,0.007841060869395733,0.023054003715515137,0.0018836179515346885,0.0014553312212228775,0.001560214557684958,0.006849794182926416,0.028525186702609062,-0.004230802413076162,-0.005814278498291969,-0.00038261752342805266,0.019138215109705925,-0.007680835667997599,-0.02715795487165451,0.01956474781036377,-0.0186135396361351,-0.01486789807677269,0.015565294772386551,0.01648762635886669,-0.0006121554179117084,0.012533189728856087,-0.02423488348722458,-0.03197329118847847,-0.011854035779833794,-0.0019051757408306003,0.0002312991418875754,-0.025422118604183197,-0.005258413031697273,0.030301399528980255,-0.013888077810406685,-0.028062867000699043,-0.0018421611748635769,0.031047668308019638,0.022760795429348946,0.008022032678127289,0.03338901326060295,-0.010664127767086029,0.006064827553927898,-0.00021340760577004403,-0.020833097398281097,-0.002766233868896961,-0.021470075473189354,0.015468440018594265,0.014652775600552559,0.00710650347173214,-0.017906872555613518,-0.0028683028649538755,-0.018013617023825645,0.02899063378572464,-0.0074146818369627,0.0513816736638546,0.020231079310178757,0.012776030227541924,0.00378083111718297,-0.012387867085635662,0.0015529441880062222,-0.01721792109310627,0.01730431616306305,0.024017754942178726,0.03303709998726845,0.013247453607618809,-0.020364275202155113,-0.02263370156288147,0.0009009063942357898,0.004306232091039419,-0.004466948565095663,-0.0073060765862464905,-0.04423363506793976,0.024359749630093575,-0.007532558403909206,0.0059267436154186726,-0.03202040493488312,-0.008091632276773453,-0.026914063841104507,-0.0073773181065917015,0.011641849763691425,0.0006485150661319494,-0.029927078634500504,0.011616120114922523,-0.0017894972115755081,-0.011788255535066128,-0.0414823554456234,0.010056110098958015,-0.014155992306768894,0.006294279359281063,0.007030906155705452,0.001907649915665388,-0.022331029176712036,-0.004059415776282549,-0.004902887158095837,-0.012654198333621025,-0.016971373930573463,-0.03133369982242584,0.02801411598920822,-0.011126100085675716,-0.010331190191209316,0.002712689805775881,-0.013167775236070156,0.023801427334547043,-0.021424442529678345,-0.01661611907184124,-0.1804332733154297,0.0014970656484365463,0.006543268915265799,0.004075528122484684,0.012879217974841595,-0.0027409621980041265,0.011018740013241768,0.01791364885866642,-6.507270154543221e-05,-0.002558954991400242,-0.0066484371200203896,-0.004003820940852165,-0.0022583394311368465,0.00955143477767706,-0.026222262531518936,-0.017967816442251205,-0.023008806630969048,-0.010069936513900757,-0.005819548852741718,-0.012957911938428879,0.008116401731967926,0.020047450438141823,0.005406751297414303,0.02278134971857071,-0.02194191701710224,0.01034461334347725,-0.02843962050974369,0.011217912659049034,-0.03190384432673454,-0.012781540863215923,-0.02168591506779194,-0.06514080613851547,0.008617742918431759,0.008454822935163975,-0.007388308644294739,-0.001048780744895339,0.033481258898973465,-0.03186080977320671,-0.05744771286845207,0.004957063589245081,-0.017284560948610306,-0.012588282115757465,-0.005296457093209028,0.012533102184534073,-0.020540300756692886,-0.02560768462717533,0.05116592347621918,0.9098169803619385,0.011312933638691902,-0.009123510681092739,-0.026318615302443504,-0.017576422542333603,-0.01532714068889618,0.020129047334194183,-0.013267133384943008,-0.029354138299822807,0.021912015974521637,0.015108032152056694,0.024641476571559906,-0.01504981704056263,0.004217009525746107,0.004857857711613178,0.0420810766518116,-0.026755759492516518,0.01034310832619667,-0.012257306836545467,-0.0028840391896665096,-0.010323475115001202,-0.022659163922071457,0.020462244749069214,-0.01661996729671955,0.0005406228010542691,0.031443409621715546,0.004414225462824106,0.005535647738724947,0.0075910333544015884,-0.005676159169524908,-0.00326816039159894,-0.0044892048463225365,-0.01042788103222847,-0.0006808719481341541,-0.00870434008538723,0.014547688886523247,-0.008513961918652058,9.783740097191185e-05,0.01667672023177147,-0.003380044363439083,-0.02754984050989151,-0.0009826821042224765,-0.018384598195552826,-0.010608161799609661,-0.0011224329937249422,0.015358646400272846,0.025652272626757622,-0.016162939369678497,0.006186395417898893,0.007069835439324379,0.00939234159886837,-0.019429001957178116,-0.054305896162986755,-0.007190876640379429,-0.00708743603900075,0.00998719036579132,0.0075254240073263645,0.022994033992290497,0.032568469643592834,0.026049278676509857,-0.0073938677087426186,-0.020812608301639557,-0.010464489459991455,-0.014259397983551025,0.03001905232667923,-0.02660541981458664,0.012704148888587952,-0.00897550955414772,0.006650289986282587,0.01391613483428955,-0.001283977646380663,-0.015574579127132893,0.003574209986254573,-0.01434942614287138,0.0011417848290875554,-0.014203313738107681,0.018331585451960564,-0.023068979382514954,0.010964781977236271,0.0364752858877182,0.0263349786400795,0.009485463611781597,0.02253221534192562,0.005183180794119835,0.021800044924020767,0.01099016610532999,-0.003195939352735877,-0.014974551275372505,-0.0020979270339012146,0.0013121706433594227,-0.04082052409648895,0.022425241768360138,-0.027963293716311455,0.01592174544930458,-0.008576307445764542,0.026052340865135193,0.02181452140212059,0.009725360199809074,-0.0141362976282835,0.0068016876466572285,0.01345557440072298,-0.025886764749884605,-0.011587662622332573,-0.006104574538767338,0.01033550314605236,-0.003642360446974635,0.015172574669122696,-0.0038393577560782433,0.00016786892956588417,0.002552428049966693,-0.01085072010755539,0.009172074496746063,-0.03643949702382088,-0.028200991451740265,-0.004363182000815868,-0.014532547444105148,-0.016342921182513237,-0.006144227925688028,0.024620313197374344,-0.0272525567561388,-0.039373550564050674,0.016291595995426178,0.02320273406803608,-0.0015034698881208897,-0.028961705043911934,0.021211065351963043,-0.006993618328124285,0.02037864178419113,0.0052273208275437355,-0.006137154996395111,-0.011739861220121384,0.013719563372433186,0.25837451219558716,0.011163526214659214,-0.026825759559869766,0.004653990268707275,0.0005603890167549253,-0.01423156913369894,-0.02228935807943344,0.013308301568031311,-0.02551170438528061,0.009812779724597931,-0.010441841557621956,-0.007628696039319038,-0.0126382727175951,0.0032204920426011086,-0.025396618992090225,-0.006527849473059177,-0.018701963126659393,0.021748602390289307,-0.01076686754822731,0.012523161247372627,-0.023640982806682587,-0.004219912923872471,-0.008179443888366222,-0.006443595513701439,-0.03300847113132477,-0.015326278284192085,-0.007971192710101604,0.018280768766999245,-0.029808487743139267,0.0038514873012900352,-0.016257263720035553,-0.00550093175843358,0.019882801920175552,0.01109073031693697,-0.020465105772018433,-0.013490265235304832,0.026212330907583237,0.004013544879853725,0.03378140553832054,0.01416760217398405,-0.008874913677573204,0.013189581222832203,0.0013177810469642282,-0.0059119053184986115,-0.01556761097162962,0.003931798040866852,0.02711758017539978,-0.001677991822361946,-0.005222329869866371,-0.006029668729752302,-0.00811507273465395,-0.011946159414947033,0.004487670958042145,-0.008925079368054867,-0.003178050508722663,0.010724385268986225,0.012772808782756329,0.0032079110387712717,0.007063346449285746,0.003335521323606372,-0.0037568339612334967,0.028620030730962753,-0.006494341418147087,-0.02167733572423458,-0.012020513415336609,-0.014924579299986362,0.004769601859152317,-0.017200598493218422,-0.0011420495575293899,0.012368541210889816,0.016391389071941376,-0.008878026157617569,0.01593790389597416,0.0013796620769426227,-0.010492346249520779,-0.006406410597264767,-0.01211473811417818,0.021384617313742638,0.005401242524385452,-0.00936952605843544,-0.006642894819378853,0.025623418390750885,-0.026841627433896065,-0.020152539014816284,-0.04233257472515106,0.003536954987794161,0.02616395615041256,0.011302705854177475,-0.008978684432804585,0.0075247567147016525,-0.008432949893176556,0.013477589935064316,-0.005978039465844631,0.017679043114185333,-0.023741893470287323,-0.015073854476213455,-0.01481044664978981,0.016731221228837967,-0.02395210973918438,-0.008063281886279583,-0.0003888770588673651,0.042572490870952606,-0.035955969244241714,-0.012400878593325615,0.016063174232840538,-0.0068288990296423435,-0.0013934419257566333,0.021398097276687622,0.0051834797486662865,0.011128581129014492,0.004095377400517464,-0.02777029387652874,0.016098370775580406,-0.0032145483419299126,0.012040581554174423,-0.015191715210676193,-0.002297005383297801,-0.02146971970796585,-0.0013400883181020617,-0.028468795120716095,0.029490351676940918,-0.006889529526233673,-0.004709444474428892,0.03168950974941254,0.001924963085912168,-0.0039248112589120865,-0.012056056410074234,0.0075035435147583485,-0.008310018107295036,-0.006890724878758192,-0.004005610942840576,-0.01055524405092001,0.007421787362545729,0.006181485019624233,-0.028031084686517715,-0.004132556263357401,-0.0065889437682926655,-0.02697809413075447,-0.004438201896846294,0.002033649245277047,0.0015204509254544973,0.009561004117131233,0.010418818332254887,-0.011156936176121235,-0.003856924595311284,-0.025036057457327843,-0.02322385646402836,-0.0013559694634750485,-0.009391305968165398,0.02790563553571701,-0.007781761232763529,-0.003666236996650696,0.005109940655529499,-0.011604111641645432,-0.01596856862306595,0.004012453369796276,0.03969906270503998,-0.007618113420903683,0.0031637458596378565,-0.012321215122938156,0.001277676085010171,-0.004380675498396158,0.009587302803993225,0.00627308851107955,0.0027404162101447582,-0.0012726658023893833,-0.016589485108852386,-0.020996950566768646,-0.021802356466650963,-0.013176361098885536,-0.00036975761759094894,0.008418568409979343,-0.018309444189071655,-0.017836209386587143,0.014801095239818096,-0.0008081452106125653,0.0033705448731780052,-0.015753313899040222,-0.029194490984082222,-0.006524814758449793,-0.014632082544267178,-0.0011419258080422878,0.0219332966953516,0.01242140494287014,-0.000269496813416481,-0.01412801630795002,-0.02073696255683899,0.010596619918942451,-0.003229699796065688,-0.005285903345793486,0.02243858575820923,0.010908124968409538,-0.005846984684467316,-0.016994547098875046,-0.010023019276559353,0.02669099159538746,0.007268034853041172,-0.00020382978254929185,0.008386341854929924,-0.014929752796888351,-0.0119652533903718,-0.0046030860394239426,0.012388821691274643,-0.004654850345104933,0.0027683808002620935,0.026565542444586754,-0.004540824331343174,0.0006856796098873019,-0.40391790866851807,0.0032048262655735016,-0.02326914295554161,0.03805564343929291,-0.018370430916547775,-0.012513499706983566,0.019570445641875267,-0.02749672904610634,-0.025202058255672455,-0.0054726311936974525,0.01458988431841135,0.007090689614415169,-0.038001056760549545,0.0007092359010130167,0.027459552511572838,-0.023412836715579033,-0.03683013841509819,0.020704932510852814,0.007196861784905195,-0.014334548264741898,0.025765229016542435,0.0012576133012771606,0.011957766488194466,0.021486086770892143,0.009148899465799332,0.021457413211464882,-0.005328717175871134,-0.001768084242939949
M1D,-0.009995918720960617,-0.0031269744504243135,0.014240034855902195,0.014791816473007202,0.008803822100162506,0.02592494525015354,0.006900486070662737,-0.017566140741109848,-8.429359149886295e-05,0.0002912171185016632,-0.0001979613007279113,0.004283225163817406,-0.010625590570271015,0.009284544736146927,-0.0173795185983181,0.003473989199846983,0.013875073753297329,-0.003291781060397625,0.02280162274837494,-0.0037195226177573204,0.026206770911812782,0.011185800656676292,-0.014191011898219585,0.44271326065063477,-0.008874969556927681,-0.014430289156734943,-0.016625605523586273,-0.017376959323883057,-0.0034691800829023123,0.01179963443428278,-0.013722406700253487,0.01876983977854252,-0.03313114121556282,0.005950153339654207,0.019894324243068695,0.006352999247610569,-0.01619001291692257,-0.0033411839976906776,-0.029067503288388252,-0.015798961743712425,-0.016465524211525917,0.004533088766038418,-0.0041810330003499985,0.009654279798269272,0.022337380796670914,-0.002925928682088852,-0.02124929055571556,0.00801705103367567,0.003389992518350482,-0.020248621702194214,-0.009226658381521702,-0.013133971951901913,-0.02649267576634884,0.007780772168189287,-0.03187571465969086,0.008576235733926296,0.01123003289103508,-0.013370335102081299,0.006730233319103718,0.027004914358258247,-0.019699374213814735,0.0026364903897047043,0.00884609017521143,-0.031446926295757294,-0.009564916603267193,0.002344670007005334,-0.031808964908123016,0.018047766759991646,-0.013237313367426395,0.004846593365073204,0.004376815631985664,0.009033736772835255,-0.014730734750628471,0.0065230997279286385,-0.020666806027293205,-0.024347184225916862,0.017557017505168915,-0.0115122115239501,-0.005072244442999363,-0.004417478572577238,-0.012940456159412861,-0.007682408671826124,-0.027269497513771057,0.008146924898028374,0.02411714568734169,0.019092341884970665,-0.03370004519820213,-0.006955674849450588,-0.017268607392907143,0.014674223028123379,-0.0073335194028913975,0.026194334030151367,0.004102428909391165,-0.009433426894247532,0.011382726952433586,-0.0050765397027134895,-0.008601627312600613,0.013293514028191566,-0.00019700100529007614,0.009778821840882301,-0.037709493190050125,-0.010183666832745075,0.0037006570491939783,0.0014633163809776306,0.0035234044771641493,-0.017790628597140312,-0.01593012548983097,-0.01913658156991005,-0.005054728128015995,-0.018916621804237366,-0.009275445714592934,0.01833418384194374,-0.03645583242177963,0.008798204362392426,-0.015339457429945469,0.008413225412368774,-0.0012514296686276793,-0.004289105534553528,-0.010414416901767254,-0.004119450692087412,0.014286954887211323,-0.012299848720431328,-0.00235265982337296,-0.014006154611706734,0.0017857211641967297,0.014788483269512653,0.015200681053102016,0.01141255535185337,-0.03954140841960907,-0.008801896125078201,0.006807403638958931,0.011364814825356007,0.01165770459920168,0.0072065857239067554,0.0026761149056255817,-0.001709841308183968,-0.016141768544912338,-0.029305031523108482,-0.011156939901411533,-0.009890940971672535,-0.013465848751366138,0.016007065773010254,-0.009901167824864388,0.00018229562556371093,-0.013324367813766003,0.009512338787317276,0.007621954660862684,0.0063942004926502705,-0.022078553214669228,-0.010850475169718266,-0.0023459852673113346,-0.004211118910461664,-0.00892489030957222,0.0034783887676894665,0.01706422120332718,0.001615641638636589,-0.010926221497356892,-0.009983984753489494,0.02706977166235447,-0.002529166406020522,-0.001344976364634931,-0.007168429438024759,-0.0075506288558244705,-0.007572260219603777,-0.014155932702124119,-0.0029191775247454643,-0.007631429471075535,-0.007838737219572067,-0.026128383353352547,0.004737626761198044,0.008648620918393135,0.002664194442331791,-0.004709960892796516,-0.013998531736433506,-0.010678908787667751,0.016606144607067108,-0.03336329758167267,-0.015434052795171738,-0.008208579383790493,-0.01766468770802021,0.017420003190636635,-0.021158749237656593,-0.016943782567977905,-0.016439063474535942,-0.012920294888317585,-0.005404552444815636,-0.016176560893654823,-0.0030346056446433067,-0.02095669135451317,-0.017177559435367584,0.0038972655311226845,-0.0019706985913217068,0.007384495809674263,0.004300232511013746,0.02390008419752121,-0.010449404828250408,0.006745902821421623,0.02348952740430832,-0.023689785972237587,0.005681902170181274,-0.006473147310316563,-0.0010221904376521707,0.006142286583781242,0.024306854233145714,-0.005855457857251167,0.003065483644604683,-0.008540097624063492,0.020014137029647827,0.012477176263928413,0.5827745795249939,-0.01334625668823719,0.011868821457028389,0.4934939742088318,0.009081099182367325,0.005475379526615143,-0.012484750710427761,-0.01876068115234375,-0.012914985418319702,-0.015158634632825851,0.009369103237986565,-0.002811088226735592,-0.0006564275827258825,-0.004210254643112421,0.012046881020069122,-0.009099055081605911,0.006055866833776236,0.006589722353965044,-0.00626604026183486,0.012633676640689373,-0.008239414542913437,-0.010349667631089687,-0.00894245132803917,0.0013530972646549344,-0.024887386709451675,-0.02408837154507637,-0.013827432878315449,-0.014032398350536823,0.01273594330996275,-0.01951046660542488,-0.009454339742660522,-0.008841531351208687,-0.00717581994831562,-0.01033079158514738,0.015330793336033821,0.02834881655871868,-0.002912509022280574,-0.0060343979857862,0.0018988632364198565,-0.04521401226520538,-0.017680585384368896,-0.006583706475794315,-0.01980116218328476,0.004232239443808794,0.016783952713012695,0.003405618481338024,0.00863198097795248,-0.006565311457961798,0.09453340619802475,0.0007319980068132281,-0.009536391124129295,0.004664038307964802,0.008224363438785076,0.02399127185344696,-0.005693019833415747,-0.04127606004476547,-0.0250041875988245,0.006539750378578901,-0.012033401057124138,-0.006914674304425716,0.0010175262577831745,-0.0051763029769063,0.005204496905207634,0.007647464517503977,-0.006941951345652342,-0.0017365312669426203,0.005242389161139727,0.01614728942513466,-0.006654692813754082,0.011239628307521343,-0.005495387129485607,-0.003917188849300146,-0.009011019952595234,0.019428247585892677,0.0019662363920360804,0.0075086611323058605,-0.0030486558098345995,-0.003987312316894531,-0.00380514282733202,0.005814792588353157,0.006109750829637051,0.016949672251939774,-0.021915409713983536,0.0027881674468517303,-0.008025207556784153,0.03248301520943642,0.021680735051631927,-0.004613188561052084,-0.013551509939134121,0.018331263214349747,-0.006793121341615915,0.010408242233097553,-0.013287032954394817,-0.02341984212398529,-0.0016696793027222157,0.023217661306262016,0.00661378912627697,0.015404707752168179,0.018848687410354614,0.03273522108793259,0.009915249422192574,-0.006379496306180954,0.025584345683455467,0.007662927266210318,-0.01060351449996233,-0.04254150390625,-0.009024575352668762,0.0129051199182868,-0.014132466167211533,-0.005586625542491674,0.005649106577038765,-0.008717019110918045,0.018255246803164482,0.0003824389132205397,0.007485138718038797,-0.03713645786046982,-0.002925274893641472,-0.013282566331326962,-0.018694421276450157,0.011476296931505203,-0.0015283511020243168,-0.005836221855133772,-0.007164906244724989,-0.010820318013429642,0.006216490641236305,-0.00043173879384994507,0.01267295889556408,-0.004634630400687456,0.0016263826983049512,0.014718560501933098,0.011625323444604874,-0.019443904981017113,-0.008134821429848671,0.01080241333693266,0.00467539019882679,-0.0025342318695038557,0.008465521037578583,-0.015685375779867172,-0.017667336389422417,0.016743076965212822,-0.01292828842997551,0.0025523940566927195,9.155097359325737e-05,-0.007884916849434376,0.014448040165007114,-0.0034298780374228954,0.0034008559305220842,-0.01537210401147604,0.014736924320459366,0.02861752361059189,0.028133220970630646,-0.013773974031209946,-0.035651180893182755,0.013637000694870949,-0.015759387984871864,-0.0034989400301128626,0.0009181731147691607,-0.011057247407734394,-0.010783787816762924,0.009887169115245342,0.014196472242474556,-0.005745753645896912,-0.003687558462843299,0.010365072637796402,-0.017053591087460518,0.002227999735623598,0.006383026018738747,0.023204810917377472,-0.01365214679390192,-0.016425523906946182,-0.016538525000214577,0.004219980910420418,0.022013617679476738,0.007716328836977482,0.020424140617251396,0.033302709460258484,-0.00832185335457325,-0.011700102128088474,-0.003350981045514345,5.362348383641802e-05,0.0008464719285257161,0.0002797839406412095,0.009761308319866657,-0.012032324448227882,-0.01820365898311138,0.0018870586063712835,0.0014021825045347214,0.00670813350006938,0.010496390052139759,0.02103186957538128,-0.013408364728093147,0.023408912122249603,0.01955694891512394,0.03161181882023811,0.006543655414134264,-0.0012517599388957024,-0.0021312471944838762,0.017150381579995155,-0.006151499692350626,-0.005566614214330912,0.008824680000543594,-0.021204199641942978,0.017203213647007942,-0.0005109182093292475,0.00023381950450129807,0.01576208509504795,-0.004485771991312504,-0.0016490148846060038,0.017609428614377975,-0.008648697286844254,0.011406173929572105,-0.03466577082872391,0.04215660318732262,0.010103951208293438,-0.00889036525040865,0.012544255703687668,-0.00535122025758028,-0.014567811973392963,-0.005332802888005972,0.01911233551800251,-0.007368664722889662,-0.020016411319375038,-0.037639133632183075,-0.007683105766773224,-0.020653923973441124,-0.005175482947379351,-0.03114239126443863,0.011240199208259583,0.0041326186619699,0.01441599428653717,0.028667105361819267,-0.006072673946619034,0.01131522748619318,-0.020712489262223244,-0.027018439024686813,0.021918322890996933,0.007687275763601065,0.013400191441178322,-0.004612917546182871,-0.011363085359334946,0.008482664823532104,0.01069053914397955,0.0044479211792349815,-0.007361855823546648,-0.009274961426854134,0.0009466517367400229,0.01845698617398739,0.008393736556172371,-0.018418768420815468,0.010418670251965523,-0.019849957898259163,-0.015886934474110603,-0.006857212632894516,0.001687586773186922,-0.005007806699723005,0.016355138272047043,-0.028986986726522446,-0.017328791320323944,-0.0171050988137722,0.008953961543738842,0.002153705107048154,-0.02986178733408451,0.006968379020690918,0.024570215493440628,-0.02105751819908619,-0.017885440960526466,0.0034841070882976055,0.03181649371981621,0.00930584967136383,0.006212364882230759,0.04198349267244339,-0.01680779829621315,0.001564613776281476,0.0005115204257890582,-0.014528406783938408,-0.006450394168496132,-0.022045470774173737,0.006731624715030193,0.01667238585650921,0.013052265159785748,-0.016663668677210808,-0.005038087256252766,-0.0004751896485686302,0.021413050591945648,-0.010022144764661789,0.03650715574622154,0.011517529375851154,0.0027779489755630493,-0.010828375816345215,-0.008452250622212887,0.006325896363705397,-0.007423823233693838,0.017193280160427094,0.01172397006303072,0.024969905614852905,0.009427536278963089,-0.012447208166122437,-0.015479611232876778,0.00012077111750841141,-0.010471413843333721,-0.0011449900921434164,-0.012449749745428562,-0.0297368336468935,0.01877911575138569,-0.010275051929056644,0.010343581438064575,-0.01979813352227211,-0.0003458113642409444,-0.016063924878835678,-0.002855176106095314,0.015874747186899185,-0.002903673565015197,-0.02425730973482132,0.018890367820858955,-0.003536151023581624,-0.01286626048386097,-0.03886235132813454,0.006634952966123819,-0.010858666151762009,0.005004690028727055,0.011518728919327259,-0.014555086381733418,-0.008387782610952854,-0.011464503593742847,-0.0008232994587160647,-0.0017458333168178797,-0.009695187211036682,-0.03108913078904152,0.014432721771299839,0.0005033293273299932,-0.003858754178509116,-0.003507184097543359,-0.0021102712489664555,0.02141321636736393,-0.011541434563696384,-0.0035744670312851667,-0.1400843858718872,-0.0021836210507899523,0.0022707516327500343,0.007454266306012869,-0.000909262103959918,-0.0005141231813468039,0.009501855820417404,0.0009821804706007242,0.006404465530067682,-0.008967693895101547,-0.00042444083373993635,0.007176602724939585,-0.005530104041099548,0.007528784219175577,-0.012327969074249268,-0.012077703140676022,-0.011580567806959152,-0.003881338983774185,-0.0016643872950226068,-0.006934675388038158,0.01714733988046646,0.006170567125082016,-0.015270724892616272,0.017723632976412773,-0.021175337955355644,0.00965382531285286,-0.024551739916205406,0.01489025354385376,0.000599176506511867,-0.006816125474870205,0.01063811406493187,-0.05667940899729729,-0.003120912006124854,0.009368900209665298,-0.0058471690863370895,0.0008716980810277164,0.020140230655670166,-0.026755649596452713,-0.05635322630405426,0.010700755752623081,-0.014813580550253391,0.0008487417944706976,-0.0009821528801694512,0.01482837088406086,-0.013257484883069992,-0.017141958698630333,0.04082377254962921,0.8577240705490112,0.015402939170598984,-0.0012451973743736744,-0.018102742731571198,-0.005123598035424948,-0.0071907853707671165,0.018308082595467567,-0.027485962957143784,-0.02322564460337162,0.014775685034692287,0.00711909681558609,0.012964536435902119,-0.014619674533605576,0.010441172868013382,0.01719261147081852,0.028886470943689346,-0.02089945785701275,0.0076606092043221,-0.016630254685878754,0.0018751927418634295,-0.01159261167049408,-0.023335084319114685,0.011617546901106834,-0.012318717315793037,-0.0003905415360350162,0.013882939703762531,-0.007104163523763418,-0.0031434446573257446,0.009601384401321411,-0.00726208183914423,-0.00847550854086876,-0.005152682773768902,-0.015594510361552238,0.0001615341752767563,-0.0010456392774358392,0.017437299713492393,-0.008707303553819656,0.0003406569012440741,0.004896320402622223,-0.002008322859182954,-0.024226056411862373,-0.006246375851333141,-0.00766876433044672,0.0015969839878380299,-0.005743460729718208,0.007359910290688276,0.010782815515995026,-0.02611226588487625,0.005007264669984579,-0.0004334785044193268,0.00945726502686739,-0.012150159105658531,-0.02787390723824501,-0.0022074442822486162,-0.007892119698226452,0.009082629345357418,0.003083873074501753,0.012282546609640121,0.0309154000133276,0.008764490485191345,-0.007383839227259159,0.00019444545614533126,-0.005126750096678734,-0.009447189047932625,0.01625542901456356,-0.017743241041898727,0.020390251651406288,-0.017126495018601418,0.011807069182395935,-0.0010962142841890454,-0.009772992692887783,-0.01728851906955242,0.0055612861178815365,0.001612044987268746,0.0020744428038597107,-0.012116407975554466,0.021230848506093025,-0.020525097846984863,0.01327421423047781,0.024895329028367996,0.010891906917095184,0.0036082686856389046,0.02166561782360077,0.0011145236203446984,-0.0038789797108620405,0.00811423733830452,0.007891451008617878,-0.017122430726885796,-0.00835378561168909,-0.0032204436138272285,-0.028971996158361435,0.026283500716090202,-0.02241150289773941,0.012946524657309055,0.00368688628077507,0.017165344208478928,0.011818934231996536,-0.011966786347329617,-0.01923331618309021,-0.001823771744966507,0.005501367151737213,-0.029191413894295692,-0.005546204745769501,-0.004513842985033989,-0.0022281750570982695,0.005330996587872505,0.010328976437449455,-0.007848763838410378,-0.004669934511184692,0.01833934336900711,-0.00840051006525755,0.004536763299256563,-0.04029817879199982,-0.02228465862572193,-0.001770287286490202,-0.012450950220227242,-0.009470377117395401,-0.015611655078828335,0.009564287960529327,-0.02472733147442341,-0.02027887850999832,0.00919623114168644,0.008340490981936455,0.0017085580620914698,-0.04293174296617508,0.016559341922402382,-0.011674408800899982,0.0012136229779571295,-0.0038820328190922737,-0.010574317537248135,-0.013521932996809483,0.018716730177402496,0.21914732456207275,0.004377646371722221,-0.017807725816965103,0.008034742437303066,0.005031596403568983,-0.004042256157845259,-0.03002464771270752,0.012698814272880554,-0.012792989611625671,0.006585296709090471,-0.003638515016064048,-0.010445285588502884,-0.00986822135746479,0.0063345846720039845,-0.015536470338702202,-0.006900082807987928,-0.01859246753156185,0.0125908637419343,-0.008975313976407051,0.009331434965133667,-0.004749653860926628,-0.0001281282602576539,0.0033887678291648626,-0.012519311159849167,-0.023425426334142685,-0.009813815355300903,0.0027590212412178516,0.004127923399209976,-0.027561981230974197,-0.0036757877096533775,-0.011602710001170635,-0.010298390872776508,0.01451018638908863,0.004801889881491661,-0.015816936269402504,-0.0033962279558181763,0.023648807778954506,0.012168139219284058,0.019801639020442963,0.018411865457892418,-0.01230832189321518,0.005309045314788818,0.0052286600694060326,-0.006322748027741909,-0.00542761804535985,0.00546884723007679,0.023416608572006226,-0.005122603382915258,-0.010631225071847439,-0.004689473193138838,-0.005899224895983934,-0.013179931789636612,0.0024806330911815166,0.0030956859700381756,-0.008940794505178928,-0.0009926427155733109,0.01299422699958086,0.0022531370632350445,0.006718652322888374,0.019398311153054237,-0.0023769992403686047,0.01566183939576149,-0.014361172914505005,-0.010315299034118652,-0.020612496882677078,-0.00010684411972761154,-0.00011658223229460418,-0.0013464180519804358,-0.0037963613867759705,-0.0016630254685878754,0.003731821896508336,-0.007507091388106346,0.008462771773338318,0.010221789591014385,0.0013989618746563792,0.00037593129673041403,-0.002897317288443446,0.011215290986001492,0.0055427770130336285,-0.0014188486384227872,-0.00648542121052742,0.009053096175193787,-0.018593525514006615,-0.012612450867891312,-0.007663756608963013,-0.0008048133458942175,0.0017856595804914832,-0.0004546871059574187,-0.015670500695705414,0.0017442922107875347,0.0016494994051754475,0.022257288917899132,-0.0015912223607301712,0.016153186559677124,-0.015256513841450214,-0.017667552456259727,-0.011178874410688877,0.01779359020292759,-0.01693103462457657,-0.0038987270090729,-0.0020166460890322924,0.023372186347842216,-0.0034756266977638006,-0.006732149049639702,0.002118391450494528,-0.0031734625808894634,-0.0048394533805549145,0.014366437681019306,0.015628362074494362,0.010359211824834347,0.009865343570709229,-0.01934889703989029,0.013948380947113037,-0.002286033472046256,0.0031364141032099724,-0.013584102503955364,-0.013751830905675888,-0.021823789924383163,-0.0034864454064518213,-0.021676553413271904,0.021730035543441772,0.006977174896746874,0.0004164442070759833,0.024832308292388916,0.0034383691381663084,-0.0026070941239595413,0.001607665792107582,0.005387818440794945,-0.010416042059659958,-0.0054100374691188335,-0.013558947481215,-0.01080600917339325,0.011023890227079391,-0.0031522708013653755,-0.020701415836811066,-0.0012124089989811182,-0.0010713550727814436,-0.016137249767780304,-0.007916387170553207,0.0019969074055552483,0.00808388739824295,0.010009481571614742,-0.00025724206352606416,-0.016482584178447723,0.005447637289762497,-0.029600802809000015,-0.01863699033856392,-0.01063057966530323,-0.01828412152826786,0.017495552077889442,0.0033182576298713684,-0.0018099521985277534,-0.010609220713376999,-0.008433855138719082,-0.0064046746119856834,0.0038147689774632454,0.03379956632852554,-0.009777847677469254,0.002438111463561654,-0.011898253113031387,0.006616175640374422,-0.001434708246961236,0.002427518367767334,-0.0014297324232757092,0.008357319980859756,-0.007387945428490639,-0.012684979476034641,-0.015165196731686592,-0.014977825805544853,-0.01066891010850668,9.503360342932865e-05,0.003786635585129261,-0.007915882393717766,-0.02042972482740879,0.011647775769233704,-0.004480762407183647,-0.005953683517873287,-0.01156630925834179,-0.02076297625899315,-0.009206857532262802,-0.008062398992478848,-0.0014789437409490347,0.01503297220915556,0.001071970327757299,-0.0010294734966009855,-0.017336374148726463,-0.0025267531163990498,0.015009354799985886,-0.016216684132814407,-0.01623927801847458,0.011144985444843769,-0.004467062186449766,0.006278032436966896,-0.011620570905506611,-0.011826515197753906,0.009350483305752277,0.007608670275658369,0.01293913647532463,0.01702980510890484,-0.014227282255887985,-0.009060612879693508,-0.005231916438788176,0.005801809951663017,-0.011458092369139194,-0.0015364657156169415,0.02571871504187584,-0.006710032932460308,4.529104626271874e-05,-0.27158015966415405,0.0006366500747390091,-0.01538686454296112,0.03023289330303669,-0.022467689588665962,-0.010480942204594612,0.01246007438749075,-0.004444509278982878,-0.019206587225198746,-0.012489484623074532,0.00843091681599617,0.009796947240829468,-0.07311822474002838,0.004369751550257206,0.02693028748035431,-0.014840935356914997,-0.02031473070383072,0.011797608807682991,0.014473416842520237,-0.005035437643527985,0.01804964430630207,-0.004317697137594223,0.008388672024011612,0.024319298565387726,0.0086185522377491,0.016131125390529633,-0.0027475713286548853,-0.000572735327295959
